[1]  1.221615e-01  1.210477e-01 -6.270894e-01  4.279016e-01  6.525303e-01  3.448715e-01
 [7]  2.504489e-01  6.173336e-01  1.669499e-01  2.274436e-03 -8.889303e-01 -8.142319e+02
[13] -2.232022e+01 -1.515539e+01 -3.139287e+00 -3.664657e+00 -2.743664e+01 -3.717100e+01
[19] -4.951423e+01 -2.472490e+00 -4.871362e-01 -3.008485e+00 -6.189365e+00 -4.727421e+00
[25] -7.089743e-02 -6.255201e-01 -8.770674e+00 -9.095400e+00 -1.087877e+01  3.427643e-02
[31]  5.882073e-01  1.743200e+01  5.706530e+00  3.949709e+00  3.371713e-01  9.840314e-01
[37]  1.570732e+01  1.124100e+01  1.552332e+01  3.495320e-01  4.460646e-01  1.528904e+00
[43]  1.222359e+00  3.795827e-01  3.272920e-01  4.338239e-01  1.773045e+00  1.955412e+00
[49]  2.316401e+00  3.792547e-01 -1.741106e-01 -1.048098e+01 -3.009676e+00 -2.503990e+00
[55] -3.052951e-01  6.239569e-02 -5.790772e+00 -9.452999e+00 -6.184583e+00 -1.513356e-01
[61]  6.070032e-02 -9.237400e+01 -1.227063e+01 -1.043881e+01 -2.135951e+00 -1.616934e+00
[67] -3.002707e+01 -3.058735e+01 -2.531802e+01 -9.563172e-01 -1.006876e+00 -6.586539e+02
[73] -1.819026e+01 -1.244255e+01 -2.871122e+00 -2.162369e+00 -3.710510e+01 -4.095598e+01
[79] -4.245989e+01 -2.467061e+00 -2.410753e+02 -2.412191e+02 -2.409954e+01 -2.387048e+02
[85] -2.276669e+02 -2.369501e+02 -9.080123e+00 -2.090316e+02 -5.190652e+01ยบ